svm_type c_svc
kernel_type rbf
gamma 0.5
nr_class 3
total_sv 48
rho 0.0263686 0.0857727 0.0862186
label 1 2 3
nr_sv 5 22 21
SV
0.3227539951703354 0.852829323030631 1:-0.222222 2:1 3:-0.830508 4:-0.75 
1 0.1312746203663887 1:-0.555556 2:0.0833333 3:-0.762712 4:-0.666667 
0.2686034358251911 0 1:-0.611111 2:-0.166667 3:-0.79661 4:-0.916667 
1 1 1:-0.888889 2:-0.75 3:-0.898305 4:-0.833333 
0.5210435940380896 0.1565773213428114 1:-0.611111 2:0.25 3:-0.79661 4:-0.583333 
-0.516825081500337 0.1961274060731457 1:0.5 3:0.254237 4:0.0833333 
-0 0.8075713397986216 1:0.166667 3:0.186441 4:0.166667 
-0 1 1:0.444444 2:-0.0833334 3:0.322034 4:0.166667 
-0 0.8061348009495974 1:-0.333333 2:-0.75 3:0.0169491 4:-4.03573e-08 
-0 1 1:0.222222 2:-0.333333 3:0.220339 4:0.166667 
-0 1 1:0.111111 2:0.0833333 3:0.254237 4:0.25 
-1 0 1:-0.666667 2:-0.666667 3:-0.220339 4:-0.25 
-0 1 1:-1.32455e-07 2:-0.25 3:0.254237 4:0.0833333 
-0 1 1:-0.277778 2:-0.166667 3:0.186441 4:0.166667 
-0 1 1:0.0555554 2:-0.833333 3:0.186441 4:0.166667 
-0 1 1:-0.111111 3:0.288136 4:0.416667 
-0 1 1:0.111111 2:-0.583333 3:0.322034 4:0.166667 
-0 1 1:0.388889 2:-0.333333 3:0.288136 4:0.0833333 
-0 1 1:0.333333 2:-0.166667 3:0.355932 4:0.333333 
-0 1 1:-0.0555556 2:-0.25 3:0.186441 4:0.166667 
-0 1 1:-0.0555556 2:-0.416667 3:0.38983 4:0.25 
-0 1 1:-0.388889 2:-0.166667 3:0.186441 4:0.166667 
-0.2088255906371277 1 1:-0.0555556 2:0.166667 3:0.186441 4:0.25 
-0 1 1:0.333333 2:-0.0833334 3:0.254237 4:0.166667 
-0 1 1:0.111111 2:-0.75 3:0.152542 4:-4.03573e-08 
-0.3867503528961514 0 1:-0.611111 2:-0.75 3:-0.220339 4:-0.25 
-1 0 1:-0.555556 2:-0.583333 3:-0.322034 4:-0.166667 
-0 -1 1:-0.166667 2:-0.416667 3:0.38983 4:0.5 
-0 -1 1:0.111111 2:-0.25 3:0.559322 4:0.416667 
-1 -1 1:-0.666667 2:-0.583333 3:0.186441 4:0.333333 
-0 -1 1:0.222222 3:0.38983 4:0.583333 
-0 -1 1:0.222222 2:-0.166667 3:0.525424 4:0.416667 
-0.2978169004694484 -0 1:0.888889 2:-0.5 3:1 4:0.833333 
-0.1930676104498479 -1 1:-0.0555556 2:-0.833333 3:0.355932 4:0.166667 
-0 -0.05418734536809224 1:-0.277778 2:-0.333333 3:0.322034 4:0.583333 
-0 -1 1:0.111111 2:-0.416667 3:0.322034 4:0.416667 
-0 -0.3165942578279565 1:0.611111 3:0.694915 4:0.416667 
-0 -1 1:0.0555554 2:-0.333333 3:0.288136 4:0.416667 
-0 -1 1:-1.32455e-07 2:-0.166667 3:0.322034 4:0.416667 
-0 -1 1:0.611111 2:-0.166667 3:0.627119 4:0.25 
-0.6497967538205349 -0.4390519436253159 1:1 2:0.5 3:0.830508 4:0.583333 
-0 -1 1:0.111111 2:-0.333333 3:0.38983 4:0.166667 
-0 -1 1:-1.32455e-07 2:-0.5 3:0.559322 4:0.0833333 
-0 -1 1:0.166667 2:-0.0833334 3:0.525424 4:0.416667 
-0 -1 1:-0.0555556 2:-0.166667 3:0.288136 4:0.416667 
-0 -1 1:-0.166667 2:-0.416667 3:0.38983 4:0.5 
-0 -1 1:0.111111 2:-0.583333 3:0.355932 4:0.5 
-0 -1 1:-0.111111 2:-0.166667 3:0.38983 4:0.416667 
